%YAML:1.0
---
opencv_ml_svm:
   format: 3
   svmType: C_SVC
   kernel:
      type: LINEAR
   C: 1.
   term_criteria: { epsilon:1.1920928955078125e-07, iterations:1000 }
   var_count: 64
   class_count: 10
   class_labels: !!opencv-matrix
      rows: 10
      cols: 1
      dt: i
      data: [ 0, 1, 2, 3, 4, 5, 6, 7, 8, 9 ]
   sv_total: 45
   support_vectors:
      - [ -7.15758360e-05, 3.77450160e-05, 0., 0., 6.41229635e-05, 0.,
          3.77450160e-05, -2.02774627e-05, -1.53895118e-04,
          6.49500871e-05, 0., 0., 8.97721475e-05, 0., 3.77450160e-05,
          -2.02774627e-05, 0., 0., 0., 0., 0., 0., 0., 0., 0., 0., 0.,
          0., 0., 0., 0., 0., 0., 0., 0., 0., 0., 0., 0., 0., 0., 0., 0.,
          0., 0., 0., 0., 0., 0., 0., 0., 0., 0., 0., 0., 0., 0., 0., 0.,
          0., 0., 0., 0., 0. ]
      - [ 9.55786891e-05, -6.75843330e-05, -2.37467139e-05,
          -1.67914641e-05, -2.12397099e-05, 0., 4.62748285e-05,
          -1.67914641e-05, 1.31886496e-04, -7.38751041e-05, 0.,
          -1.67914641e-05, 1.06198549e-05, 0., 3.12560878e-05, 0., 0.,
          0., 0., 0., 0., 0., 0., 0., 0., 0., 0., 0., 0., 0., 0., 0., 0.,
          0., 0., 0., 0., 0., 0., 0., 0., 0., 0., 0., 0., 0., 0., 0., 0.,
          0., 0., 0., 0., 0., 0., 0., 0., 0., 0., 0., 0., 0., 0., 0. ]
      - [ 5.49549550e-05, 1.50549904e-05, 0., 0., 7.67283018e-06, 0.,
          -2.38040266e-05, -2.89638047e-05, 2.56456464e-04,
          2.80079948e-05, 0., 0., -2.12909763e-05, 0., -1.08510267e-05,
          0., 0., 0., 0., 0., 0., 0., 0., 0., 0., 0., 0., 0., 0., 0., 0.,
          0., 0., 0., 0., 0., 0., 0., 0., 0., 0., 0., 0., 0., 0., 0., 0.,
          0., 0., 0., 0., 0., 0., 0., 0., 0., 0., 0., 0., 0., 0., 0., 0.,
          0. ]
      - [ -9.79472607e-05, -1.51015134e-04, 0., 0., 1.04660816e-04, 0.,
          1.32513538e-04, -1.24112456e-04, 7.84956064e-05,
          5.55047736e-05, 0., 0., 3.28787683e-05, 0., 9.55103533e-05,
          -8.27416370e-05, 0., 0., 0., 0., 0., 0., 0., 0., 0., 0., 0.,
          0., 0., 0., 0., 0., 0., 0., 0., 0., 0., 0., 0., 0., 0., 0., 0.,
          0., 0., 0., 0., 0., 0., 0., 0., 0., 0., 0., 0., 0., 0., 0., 0.,
          0., 0., 0., 0., 0. ]
      - [ 1.52874185e-04, 4.88338628e-05, 0., 0., -4.72223546e-05, 0.,
          -2.83792542e-05, -6.90615198e-05, 1.83860931e-04,
          6.42764862e-05, -9.76677256e-05, 0., -2.18391706e-05, 0.,
          6.42764862e-05, 0., 0., 0., 0., 0., 0., 0., 0., 0., 0., 0., 0.,
          0., 0., 0., 0., 0., 0., 0., 0., 0., 0., 0., 0., 0., 0., 0., 0.,
          0., 0., 0., 0., 0., 0., 0., 0., 0., 0., 0., 0., 0., 0., 0., 0.,
          0., 0., 0., 0., 0. ]
      - [ 4.10145622e-05, 4.58556678e-05, 0., -6.48497153e-05,
          -7.67672973e-05, 0., 3.13548335e-05, 0., 1.93155225e-04, 0.,
          -9.17113357e-05, -3.24248576e-05, 8.20291243e-05,
          -9.17113357e-05, 6.03565095e-05, 0., 0., 0., 0., 0., 0., 0.,
          0., 0., 0., 0., 0., 0., 0., 0., 0., 0., 0., 0., 0., 0., 0., 0.,
          0., 0., 0., 0., 0., 0., 0., 0., 0., 0., 0., 0., 0., 0., 0., 0.,
          0., 0., 0., 0., 0., 0., 0., 0., 0., 0. ]
      - [ -9.75662260e-05, 1.38852502e-05, 0., 0., 2.10965271e-04, 0.,
          1.18714721e-04, 0., -8.39439890e-05, -6.89897206e-05, 0., 0.,
          0., 0., 1.02139726e-04, -3.70628186e-05, 0., 0., 0., 0., 0.,
          0., 0., 0., 0., 0., 0., 0., 0., 0., 0., 0., 0., 0., 0., 0., 0.,
          0., 0., 0., 0., 0., 0., 0., 0., 0., 0., 0., 0., 0., 0., 0., 0.,
          0., 0., 0., 0., 0., 0., 0., 0., 0., 0., 0. ]
      - [ 2.77791289e-04, -6.54760224e-05, 0., 0., -9.25970962e-05, 0.,
          -6.54760224e-05, 0., 2.77791289e-04, -2.74253780e-05, 0., 0.,
          -9.25970962e-05, 0., -2.74253780e-05, 0., 0., 0., 0., 0., 0.,
          0., 0., 0., 0., 0., 0., 0., 0., 0., 0., 0., 0., 0., 0., 0., 0.,
          0., 0., 0., 0., 0., 0., 0., 0., 0., 0., 0., 0., 0., 0., 0., 0.,
          0., 0., 0., 0., 0., 0., 0., 0., 0., 0., 0. ]
      - [ 1.86234320e-04, 3.09373900e-05, -9.78325843e-05,
          -6.91780951e-05, 1.75008274e-04, -1.95665169e-04,
          1.28769971e-04, 0., 1.31256209e-04, 5.02044168e-06, 0.,
          -6.91780951e-05, -6.91780951e-05, 0., 6.68952052e-05,
          -6.91780951e-05, 0., 0., 0., 0., 0., 0., 0., 0., 0., 0., 0.,
          0., 0., 0., 0., 0., 0., 0., 0., 0., 0., 0., 0., 0., 0., 0., 0.,
          0., 0., 0., 0., 0., 0., 0., 0., 0., 0., 0., 0., 0., 0., 0., 0.,
          0., 0., 0., 0., 0. ]
      - [ 5.01801442e-05, -3.20299660e-05, -7.69529743e-06,
          -5.44139766e-06, -2.40900936e-05, 0., 4.86693352e-06, 0.,
          8.40360954e-05, -4.13689340e-05, 0., -5.44139766e-06,
          -2.06486511e-05, 0., 0., 5.44139766e-06, 0., 0., 0., 0., 0.,
          0., 0., 0., 0., 0., 0., 0., 0., 0., 0., 0., 0., 0., 0., 0., 0.,
          0., 0., 0., 0., 0., 0., 0., 0., 0., 0., 0., 0., 0., 0., 0., 0.,
          0., 0., 0., 0., 0., 0., 0., 0., 0., 0., 0. ]
      - [ 3.79280827e-05, -9.37609821e-06, 0., 0., -2.02483388e-05, 0.,
          -1.87521964e-05, 0., 1.14918323e-04, -1.56268306e-05, 0., 0.,
          -3.60767444e-05, 0., -1.56268325e-05, 6.98853182e-06, 0., 0.,
          0., 0., 0., 0., 0., 0., 0., 0., 0., 0., 0., 0., 0., 0., 0., 0.,
          0., 0., 0., 0., 0., 0., 0., 0., 0., 0., 0., 0., 0., 0., 0., 0.,
          0., 0., 0., 0., 0., 0., 0., 0., 0., 0., 0., 0., 0., 0. ]
      - [ 1.97730460e-05, -9.37669902e-05, 0., 0., -1.07595406e-05, 0.,
          2.28244317e-05, -3.40246552e-05, 1.61393109e-04,
          -3.16672085e-05, 0., 0., -6.17965197e-05, 0., 7.60814282e-06,
          -1.70123276e-05, 0., 0., 0., 0., 0., 0., 0., 0., 0., 0., 0.,
          0., 0., 0., 0., 0., 0., 0., 0., 0., 0., 0., 0., 0., 0., 0., 0.,
          0., 0., 0., 0., 0., 0., 0., 0., 0., 0., 0., 0., 0., 0., 0., 0.,
          0., 0., 0., 0., 0. ]
      - [ 6.68069333e-05, -3.75479840e-06, 0., 0., -3.80323108e-05, 0.,
          -2.25287858e-05, -8.39598306e-06, 1.08425913e-04,
          -1.12643929e-05, -2.37474251e-05, 0., -4.24806894e-05, 0., 0.,
          8.39598306e-06, 0., 0., 0., 0., 0., 0., 0., 0., 0., 0., 0., 0.,
          0., 0., 0., 0., 0., 0., 0., 0., 0., 0., 0., 0., 0., 0., 0., 0.,
          0., 0., 0., 0., 0., 0., 0., 0., 0., 0., 0., 0., 0., 0., 0., 0.,
          0., 0., 0., 0. ]
      - [ 4.32537818e-05, -4.03436070e-06, 0., -1.80422066e-05,
          -4.98850968e-05, 0., -8.06871958e-06, 9.02110332e-06,
          1.22204161e-04, -2.88952033e-05, -2.55155301e-05,
          -9.02110332e-06, -1.71163392e-05, -2.55155301e-05, 0.,
          9.02110332e-06, 0., 0., 0., 0., 0., 0., 0., 0., 0., 0., 0., 0.,
          0., 0., 0., 0., 0., 0., 0., 0., 0., 0., 0., 0., 0., 0., 0., 0.,
          0., 0., 0., 0., 0., 0., 0., 0., 0., 0., 0., 0., 0., 0., 0., 0.,
          0., 0., 0., 0. ]
      - [ 2.56958119e-05, -4.25736580e-05, 0., 0., 7.24406709e-05, 0.,
          3.84174637e-05, 2.86346894e-05, 1.52466993e-04,
          -1.45020225e-04, 0., 0., -1.26771178e-04, 0., 2.56116418e-05,
          0., 0., 0., 0., 0., 0., 0., 0., 0., 0., 0., 0., 0., 0., 0., 0.,
          0., 0., 0., 0., 0., 0., 0., 0., 0., 0., 0., 0., 0., 0., 0., 0.,
          0., 0., 0., 0., 0., 0., 0., 0., 0., 0., 0., 0., 0., 0., 0., 0.,
          0. ]
      - [ 6.72239039e-05, -2.52929021e-05, 0., 0., -4.06322142e-05, 0.,
          -2.52929021e-05, 9.17788202e-06, 1.04482839e-04,
          -3.28357855e-05, 0., 0., -5.22414193e-05, 0., -2.05223678e-05,
          9.17788202e-06, 0., 0., 0., 0., 0., 0., 0., 0., 0., 0., 0., 0.,
          0., 0., 0., 0., 0., 0., 0., 0., 0., 0., 0., 0., 0., 0., 0., 0.,
          0., 0., 0., 0., 0., 0., 0., 0., 0., 0., 0., 0., 0., 0., 0., 0.,
          0., 0., 0., 0. ]
      - [ 8.37921325e-05, -1.90455557e-05, -1.90455557e-05,
          -1.34672428e-05, -8.51743243e-06, -3.80911115e-05, 0.,
          1.34672428e-05, 1.27761479e-04, -4.21591358e-05, 0.,
          -1.34672428e-05, -7.30892716e-05, 0., -1.20454679e-05, 0., 0.,
          0., 0., 0., 0., 0., 0., 0., 0., 0., 0., 0., 0., 0., 0., 0., 0.,
          0., 0., 0., 0., 0., 0., 0., 0., 0., 0., 0., 0., 0., 0., 0., 0.,
          0., 0., 0., 0., 0., 0., 0., 0., 0., 0., 0., 0., 0., 0., 0. ]
      - [ -1.03579718e-04, 1.24050785e-04, 3.86018764e-05,
          2.72956513e-05, 4.17574884e-05, 0., -9.76558804e-05, 0.,
          2.72956531e-05, 1.46483828e-04, 0., 2.72956513e-05,
          -3.73280200e-05, 0., -6.10349343e-05, 0., 0., 0., 0., 0., 0.,
          0., 0., 0., 0., 0., 0., 0., 0., 0., 0., 0., 0., 0., 0., 0., 0.,
          0., 0., 0., 0., 0., 0., 0., 0., 0., 0., 0., 0., 0., 0., 0., 0.,
          0., 0., 0., 0., 0., 0., 0., 0., 0., 0., 0. ]
      - [ -1.24645681e-04, 5.79397010e-06, 2.18713867e-05,
          1.54654062e-05, 5.86870920e-05, 0., 6.91634023e-06,
          -3.09308125e-05, -9.21276005e-05, 8.87900460e-05, 0.,
          1.54654062e-05, 2.50969151e-06, 0., 6.91633886e-06,
          -3.09308125e-05, 0., 0., 0., 0., 0., 0., 0., 0., 0., 0., 0.,
          0., 0., 0., 0., 0., 0., 0., 0., 0., 0., 0., 0., 0., 0., 0., 0.,
          0., 0., 0., 0., 0., 0., 0., 0., 0., 0., 0., 0., 0., 0., 0., 0.,
          0., 0., 0., 0., 0. ]
      - [ -3.01095351e-05, 1.29471431e-04, 3.36634803e-05,
          2.38036773e-05, -2.44305579e-06, 0., -8.51626173e-05,
          -2.38036773e-05, -6.02190703e-05, 1.49034575e-04,
          -6.73269606e-05, 2.38036773e-05, -3.01095351e-05, 0., 0., 0.,
          0., 0., 0., 0., 0., 0., 0., 0., 0., 0., 0., 0., 0., 0., 0., 0.,
          0., 0., 0., 0., 0., 0., 0., 0., 0., 0., 0., 0., 0., 0., 0., 0.,
          0., 0., 0., 0., 0., 0., 0., 0., 0., 0., 0., 0., 0., 0., 0., 0. ]
      - [ -1.09632718e-04, 1.34692062e-04, 3.50208829e-05,
          -2.47635071e-05, -2.73050755e-05, 0., -4.42983037e-05,
          2.47635071e-05, -4.69854494e-05, 1.08948603e-04,
          -7.00417659e-05, 0., 4.69854494e-05, -7.00417659e-05, 0., 0.,
          0., 0., 0., 0., 0., 0., 0., 0., 0., 0., 0., 0., 0., 0., 0., 0.,
          0., 0., 0., 0., 0., 0., 0., 0., 0., 0., 0., 0., 0., 0., 0., 0.,
          0., 0., 0., 0., 0., 0., 0., 0., 0., 0., 0., 0., 0., 0., 0., 0. ]
      - [ -8.15120147e-05, 4.30794462e-05, 1.38476325e-05,
          9.79175638e-06, 6.81213569e-05, 0., 4.37900644e-06,
          9.79175638e-06, -9.90856061e-05, 2.48528086e-05, 0.,
          9.79175638e-06, -6.19285038e-06, 0., 8.75801197e-06,
          -9.79175638e-06, 0., 0., 0., 0., 0., 0., 0., 0., 0., 0., 0.,
          0., 0., 0., 0., 0., 0., 0., 0., 0., 0., 0., 0., 0., 0., 0., 0.,
          0., 0., 0., 0., 0., 0., 0., 0., 0., 0., 0., 0., 0., 0., 0., 0.,
          0., 0., 0., 0., 0. ]
      - [ -6.44594838e-05, 1.06352716e-04, 4.80452582e-05,
          3.39731305e-05, 0., 0., -1.24011480e-04, 3.39731305e-05,
          -1.37918818e-04, 1.36739196e-04, 0., 3.39731305e-05,
          -6.44594838e-05, 0., -7.59662289e-05, 0., 0., 0., 0., 0., 0.,
          0., 0., 0., 0., 0., 0., 0., 0., 0., 0., 0., 0., 0., 0., 0., 0.,
          0., 0., 0., 0., 0., 0., 0., 0., 0., 0., 0., 0., 0., 0., 0., 0.,
          0., 0., 0., 0., 0., 0., 0., 0., 0., 0., 0. ]
      - [ -6.57586861e-05, 9.80272453e-05, 0., 0., 8.31788784e-05,
          -6.19978673e-05, -1.96054480e-05, 2.19195590e-05,
          -1.30575048e-04, 9.80272380e-05, 0., 0., -3.57827084e-05, 0.,
          -1.96054498e-05, -2.19195590e-05, 0., 0., 0., 0., 0., 0., 0.,
          0., 0., 0., 0., 0., 0., 0., 0., 0., 0., 0., 0., 0., 0., 0., 0.,
          0., 0., 0., 0., 0., 0., 0., 0., 0., 0., 0., 0., 0., 0., 0., 0.,
          0., 0., 0., 0., 0., 0., 0., 0., 0. ]
      - [ -8.60066575e-05, -8.40940265e-05, 0., 0., 4.56744383e-05, 0.,
          8.11670034e-05, -4.03322119e-05, -1.40295815e-04,
          7.55504607e-06, 0., 0., 3.08505587e-05, 0., 5.41113404e-05,
          -4.03322119e-05, 0., 0., 0., 0., 0., 0., 0., 0., 0., 0., 0.,
          0., 0., 0., 0., 0., 0., 0., 0., 0., 0., 0., 0., 0., 0., 0., 0.,
          0., 0., 0., 0., 0., 0., 0., 0., 0., 0., 0., 0., 0., 0., 0., 0.,
          0., 0., 0., 0., 0. ]
      - [ 1.68964354e-04, 5.97379112e-05, 0., 0., -1.09030123e-04, 0.,
          0., -6.67890272e-05, -2.35753396e-04, 5.97379221e-05,
          -1.88907870e-04, 0., 6.85479472e-06, 0., 1.49344807e-04, 0.,
          0., 0., 0., 0., 0., 0., 0., 0., 0., 0., 0., 0., 0., 0., 0., 0.,
          0., 0., 0., 0., 0., 0., 0., 0., 0., 0., 0., 0., 0., 0., 0., 0.,
          0., 0., 0., 0., 0., 0., 0., 0., 0., 0., 0., 0., 0., 0., 0., 0. ]
      - [ -2.68972362e-05, 3.80384299e-05, 0., -8.50565266e-05,
          -1.11953770e-04, 0., 7.60768671e-05, 4.25282633e-05,
          -1.23219972e-04, -4.11248257e-05, -1.20288081e-04,
          -4.25282633e-05, 1.38851014e-04, -1.20288081e-04,
          9.50960894e-05, 0., 0., 0., 0., 0., 0., 0., 0., 0., 0., 0., 0.,
          0., 0., 0., 0., 0., 0., 0., 0., 0., 0., 0., 0., 0., 0., 0., 0.,
          0., 0., 0., 0., 0., 0., 0., 0., 0., 0., 0., 0., 0., 0., 0., 0.,
          0., 0., 0., 0., 0. ]
      - [ -5.34555365e-05, -1.71283239e-06, 0., 0., 6.40451835e-05, 0.,
          4.74973094e-05, 1.18008020e-05, -1.31216526e-04,
          -3.33777025e-05, 0., 0., 8.67464041e-06, 0., 3.69423542e-05,
          -1.18008020e-05, 0., 0., 0., 0., 0., 0., 0., 0., 0., 0., 0.,
          0., 0., 0., 0., 0., 0., 0., 0., 0., 0., 0., 0., 0., 0., 0., 0.,
          0., 0., 0., 0., 0., 0., 0., 0., 0., 0., 0., 0., 0., 0., 0., 0.,
          0., 0., 0., 0., 0. ]
      - [ 1.28483502e-04, -9.57659358e-05, 0., 0., -1.03594575e-04, 0.,
          -4.91438823e-06, 6.77167482e-05, -3.42622661e-04,
          -9.08515576e-05, 0., 0., -3.58778234e-05, 0., 0., 0., 0., 0.,
          0., 0., 0., 0., 0., 0., 0., 0., 0., 0., 0., 0., 0., 0., 0., 0.,
          0., 0., 0., 0., 0., 0., 0., 0., 0., 0., 0., 0., 0., 0., 0., 0.,
          0., 0., 0., 0., 0., 0., 0., 0., 0., 0., 0., 0., 0., 0. ]
      - [ 2.52587142e-05, -2.30655246e-06, -4.49474392e-05,
          -3.17826416e-05, 7.19848613e-05, -8.98948783e-05,
          8.52817684e-05, 3.17826416e-05, -2.21112190e-04,
          -2.84272592e-05, 0., -3.17826416e-05, -8.41957171e-06, 0.,
          4.26408915e-05, -3.17826416e-05, 0., 0., 0., 0., 0., 0., 0.,
          0., 0., 0., 0., 0., 0., 0., 0., 0., 0., 0., 0., 0., 0., 0., 0.,
          0., 0., 0., 0., 0., 0., 0., 0., 0., 0., 0., 0., 0., 0., 0., 0.,
          0., 0., 0., 0., 0., 0., 0., 0., 0. ]
      - [ 1.29177264e-04, 9.62830381e-05, 0., 0., -7.40943215e-05, 0.,
          -7.65193254e-05, 1.90113788e-05, 6.51555893e-05,
          9.88185639e-06, -5.37722990e-05, 0., -2.71328299e-05, 0.,
          -8.50214656e-06, 3.80227611e-05, 0., 0., 0., 0., 0., 0., 0.,
          0., 0., 0., 0., 0., 0., 0., 0., 0., 0., 0., 0., 0., 0., 0., 0.,
          0., 0., 0., 0., 0., 0., 0., 0., 0., 0., 0., 0., 0., 0., 0., 0.,
          0., 0., 0., 0., 0., 0., 0., 0., 0. ]
      - [ 7.30565589e-05, 1.01857971e-04, 0., -4.02243350e-05,
          -9.84966609e-05, 0., -4.49721738e-05, 6.03365006e-05,
          8.16482425e-05, -2.69833035e-05, -5.68857940e-05,
          -2.01121675e-05, 3.48963986e-05, -5.68857940e-05,
          -8.99443330e-06, 4.02243350e-05, 0., 0., 0., 0., 0., 0., 0.,
          0., 0., 0., 0., 0., 0., 0., 0., 0., 0., 0., 0., 0., 0., 0., 0.,
          0., 0., 0., 0., 0., 0., 0., 0., 0., 0., 0., 0., 0., 0., 0., 0.,
          0., 0., 0., 0., 0., 0., 0., 0., 0. ]
      - [ -1.01573423e-05, 1.54325462e-04, 0., 0., 1.21249541e-04, 0.,
          0., 1.15027411e-04, -1.59592004e-04, -1.22813522e-04, 0., 0.,
          -3.04720379e-05, 0., 1.71472730e-05, 3.83424704e-05, 0., 0.,
          0., 0., 0., 0., 0., 0., 0., 0., 0., 0., 0., 0., 0., 0., 0., 0.,
          0., 0., 0., 0., 0., 0., 0., 0., 0., 0., 0., 0., 0., 0., 0., 0.,
          0., 0., 0., 0., 0., 0., 0., 0., 0., 0., 0., 0., 0., 0. ]
      - [ 1.41850702e-04, 6.34375610e-05, 0., 0., -8.73517201e-05, 0.,
          -9.43210543e-05, 6.90575980e-05, 4.36758601e-05,
          -3.95074312e-05, 0., 0., -4.74113658e-05, 0., -6.17669939e-05,
          4.60383999e-05, 0., 0., 0., 0., 0., 0., 0., 0., 0., 0., 0., 0.,
          0., 0., 0., 0., 0., 0., 0., 0., 0., 0., 0., 0., 0., 0., 0., 0.,
          0., 0., 0., 0., 0., 0., 0., 0., 0., 0., 0., 0., 0., 0., 0., 0.,
          0., 0., 0., 0. ]
      - [ 1.72326865e-04, 1.39556942e-04, -4.81668176e-05,
          -3.40590886e-05, 0., -9.63336352e-05, -4.56950584e-05,
          1.02177262e-04, 0., -4.32232991e-05, 0., -3.40590886e-05,
          -6.11269861e-05, 0., -4.56950584e-05, 3.40590886e-05, 0., 0.,
          0., 0., 0., 0., 0., 0., 0., 0., 0., 0., 0., 0., 0., 0., 0., 0.,
          0., 0., 0., 0., 0., 0., 0., 0., 0., 0., 0., 0., 0., 0., 0., 0.,
          0., 0., 0., 0., 0., 0., 0., 0., 0., 0., 0., 0., 0., 0. ]
      - [ -1.74040993e-04, 0., 0., -1.10073190e-04, -5.50366021e-05, 0.,
          9.84524449e-05, 1.10073190e-04, 3.48081994e-05,
          -1.02446611e-04, 0., -5.50365949e-05, 1.74040993e-04,
          -1.55666989e-04, 0., 0., 0., 0., 0., 0., 0., 0., 0., 0., 0.,
          0., 0., 0., 0., 0., 0., 0., 0., 0., 0., 0., 0., 0., 0., 0., 0.,
          0., 0., 0., 0., 0., 0., 0., 0., 0., 0., 0., 0., 0., 0., 0., 0.,
          0., 0., 0., 0., 0., 0., 0. ]
      - [ -8.64162939e-05, -1.27252861e-05, 0., 0., 8.64162939e-05, 0.,
          4.92686049e-05, 2.44817693e-05, -9.29017842e-05,
          -4.55710251e-05, 3.46224442e-05, 0., 7.74181535e-06, 0.,
          1.09485791e-05, -1.22408846e-05, 0., 0., 0., 0., 0., 0., 0.,
          0., 0., 0., 0., 0., 0., 0., 0., 0., 0., 0., 0., 0., 0., 0., 0.,
          0., 0., 0., 0., 0., 0., 0., 0., 0., 0., 0., 0., 0., 0., 0., 0.,
          0., 0., 0., 0., 0., 0., 0., 0., 0. ]
      - [ -5.14540297e-05, -1.87821672e-04, 0., 0., 8.34985076e-06, 0.,
          -5.90422269e-06, 1.62711935e-04, -1.24460144e-04,
          -1.81917465e-04, 2.30109392e-04, 0., -5.14540297e-05, 0.,
          -1.81917465e-04, 0., 0., 0., 0., 0., 0., 0., 0., 0., 0., 0.,
          0., 0., 0., 0., 0., 0., 0., 0., 0., 0., 0., 0., 0., 0., 0., 0.,
          0., 0., 0., 0., 0., 0., 0., 0., 0., 0., 0., 0., 0., 0., 0., 0.,
          0., 0., 0., 0., 0., 0. ]
      - [ -6.40236030e-05, -3.56816272e-05, -5.21835063e-05,
          -3.68993133e-05, 1.43810161e-04, -1.04367013e-04,
          9.90112458e-05, 7.37986265e-05, -1.26460916e-04,
          -6.60075020e-05, 1.04367013e-04, -3.68993133e-05,
          -1.35621412e-05, 0., -3.30037510e-05, -3.68993133e-05, 0., 0.,
          0., 0., 0., 0., 0., 0., 0., 0., 0., 0., 0., 0., 0., 0., 0., 0.,
          0., 0., 0., 0., 0., 0., 0., 0., 0., 0., 0., 0., 0., 0., 0., 0.,
          0., 0., 0., 0., 0., 0., 0., 0., 0., 0., 0., 0., 0., 0. ]
      - [ -5.18320849e-05, -1.38255418e-05, 0., 2.65985145e-05,
          1.07187290e-04, 0., 2.97380429e-05, 0., -1.09345456e-04,
          -2.47555945e-05, 3.76159769e-05, 1.32992573e-05,
          -3.36447556e-05, 3.76159769e-05, 1.18952166e-05,
          -1.32992573e-05, 0., 0., 0., 0., 0., 0., 0., 0., 0., 0., 0.,
          0., 0., 0., 0., 0., 0., 0., 0., 0., 0., 0., 0., 0., 0., 0., 0.,
          0., 0., 0., 0., 0., 0., 0., 0., 0., 0., 0., 0., 0., 0., 0., 0.,
          0., 0., 0., 0., 0. ]
      - [ 1.01815385e-04, -9.29136950e-05, 0., 8.04921292e-05,
          4.43766658e-05, 0., -7.49151077e-05, 0., -8.70231670e-05,
          -1.50778242e-05, 1.13833048e-04, 4.02460646e-05,
          -1.52723078e-04, 1.13833048e-04, -8.99929437e-05, 0., 0., 0.,
          0., 0., 0., 0., 0., 0., 0., 0., 0., 0., 0., 0., 0., 0., 0., 0.,
          0., 0., 0., 0., 0., 0., 0., 0., 0., 0., 0., 0., 0., 0., 0., 0.,
          0., 0., 0., 0., 0., 0., 0., 0., 0., 0., 0., 0., 0., 0. ]
      - [ 4.13996058e-05, -2.80505410e-05, -4.10232278e-05,
          2.90078060e-05, 1.42061865e-04, -8.20464556e-05,
          2.59453700e-05, 0., -1.17761374e-04, 2.10517510e-06,
          8.20464556e-05, 0., -1.02392398e-04, 8.20464556e-05,
          -2.59453700e-05, -2.90078060e-05, 0., 0., 0., 0., 0., 0., 0.,
          0., 0., 0., 0., 0., 0., 0., 0., 0., 0., 0., 0., 0., 0., 0., 0.,
          0., 0., 0., 0., 0., 0., 0., 0., 0., 0., 0., 0., 0., 0., 0., 0.,
          0., 0., 0., 0., 0., 0., 0., 0., 0. ]
      - [ 9.99810072e-05, -1.97415538e-05, 0., 0., -1.08222885e-04, 0.,
          -6.37404082e-05, 0., 9.42635015e-05, 2.31283593e-05, 0., 0.,
          -1.96768888e-05, 0., -4.86978133e-05, 1.55559464e-05, 0., 0.,
          0., 0., 0., 0., 0., 0., 0., 0., 0., 0., 0., 0., 0., 0., 0., 0.,
          0., 0., 0., 0., 0., 0., 0., 0., 0., 0., 0., 0., 0., 0., 0., 0.,
          0., 0., 0., 0., 0., 0., 0., 0., 0., 0., 0., 0., 0., 0. ]
      - [ 1.70574596e-04, 2.32490038e-06, -4.53049834e-05,
          -3.20354629e-05, -1.01305028e-04, -9.06099667e-05,
          -4.29800821e-05, 0., 1.33340494e-04, 6.19565690e-05, 0.,
          -3.20354629e-05, -3.20354666e-05, 0., -5.73067773e-05, 0., 0.,
          0., 0., 0., 0., 0., 0., 0., 0., 0., 0., 0., 0., 0., 0., 0., 0.,
          0., 0., 0., 0., 0., 0., 0., 0., 0., 0., 0., 0., 0., 0., 0., 0.,
          0., 0., 0., 0., 0., 0., 0., 0., 0., 0., 0., 0., 0., 0., 0. ]
      - [ -6.26082328e-05, 7.61792035e-05, -8.02999275e-05,
          -5.67806310e-05, 2.15467342e-04, -1.60599855e-04,
          1.56479131e-04, 0., -1.07733671e-04, 2.53930739e-05, 0.,
          -5.67806310e-05, 1.50418136e-05, 0., 7.61792107e-05,
          -5.67806310e-05, 0., 0., 0., 0., 0., 0., 0., 0., 0., 0., 0.,
          0., 0., 0., 0., 0., 0., 0., 0., 0., 0., 0., 0., 0., 0., 0., 0.,
          0., 0., 0., 0., 0., 0., 0., 0., 0., 0., 0., 0., 0., 0., 0., 0.,
          0., 0., 0., 0., 0. ]
   uncompressed_sv_total: 10
   uncompressed_support_vectors:
      - [ 1.20263809e+04, 1.08187329e+03, 0., 0., 2040., 0.,
          1.08187329e+03, 8.06380798e+02, 15300., 0., 0., 0., 1020., 0.,
          1.08187329e+03, 8.06380798e+02, 0., 0., 0., 0., 0., 0., 0., 0.,
          0., 0., 0., 0., 0., 0., 0., 0., 0., 0., 0., 0., 0., 0., 0., 0.,
          0., 0., 0., 0., 0., 0., 0., 0., 0., 0., 0., 0., 0., 0., 0., 0.,
          0., 0., 0., 0., 0., 0., 0., 0. ]
      - [ 4590., 5.82851221e+03, 1.14039453e+03, 8.06380798e+02, 5610.,
          0., 3.60624451e+02, 8.06380798e+02, 2.84638086e+03,
          6.13061523e+03, 0., 8.06380798e+02, 4080., 0., 1.08187329e+03,
          0., 0., 0., 0., 0., 0., 0., 0., 0., 0., 0., 0., 0., 0., 0., 0.,
          0., 0., 0., 0., 0., 0., 0., 0., 0., 0., 0., 0., 0., 0., 0., 0.,
          0., 0., 0., 0., 0., 0., 0., 0., 0., 0., 0., 0., 0., 0., 0., 0.,
          0. ]
      - [ 7650., 2.16374658e+03, 0., 0., 4.37638086e+03, 0.,
          3.24561987e+03, 8.06380798e+02, 2040., 1.80312219e+03, 0., 0.,
          5.18276172e+03, 0., 2.88499561e+03, 0., 0., 0., 0., 0., 0., 0.,
          0., 0., 0., 0., 0., 0., 0., 0., 0., 0., 0., 0., 0., 0., 0., 0.,
          0., 0., 0., 0., 0., 0., 0., 0., 0., 0., 0., 0., 0., 0., 0., 0.,
          0., 0., 0., 0., 0., 0., 0., 0., 0., 0. ]
      - [ 1.10891426e+04, 5.52640918e+03, 0., 0., 2550., 0., 0.,
          2.41914233e+03, 7650., 1.50101904e+03, 0., 0., 3.94914233e+03,
          0., 7.21248901e+02, 1.61276160e+03, 0., 0., 0., 0., 0., 0., 0.,
          0., 0., 0., 0., 0., 0., 0., 0., 0., 0., 0., 0., 0., 0., 0., 0.,
          0., 0., 0., 0., 0., 0., 0., 0., 0., 0., 0., 0., 0., 0., 0., 0.,
          0., 0., 0., 0., 0., 0., 0., 0., 0. ]
      - [ 5610., 1.44249780e+03, 0., 0., 5.69276172e+03, 0.,
          3.24561987e+03, 1.61276160e+03, 4.88638086e+03, 1.08187329e+03,
          2.28078906e+03, 0., 5100., 0., 1.08187329e+03, 0., 0., 0., 0.,
          0., 0., 0., 0., 0., 0., 0., 0., 0., 0., 0., 0., 0., 0., 0., 0.,
          0., 0., 0., 0., 0., 0., 0., 0., 0., 0., 0., 0., 0., 0., 0., 0.,
          0., 0., 0., 0., 0., 0., 0., 0., 0., 0., 0., 0., 0. ]
      - [ 8160., 1.44249780e+03, 0., 1.61276160e+03, 6.49914258e+03, 0.,
          1.80312219e+03, 0., 4.37638086e+03, 2.58289233e+03,
          2.28078906e+03, 8.06380798e+02, 2550., 2.28078906e+03,
          1.08187329e+03, 0., 0., 0., 0., 0., 0., 0., 0., 0., 0., 0., 0.,
          0., 0., 0., 0., 0., 0., 0., 0., 0., 0., 0., 0., 0., 0., 0., 0.,
          0., 0., 0., 0., 0., 0., 0., 0., 0., 0., 0., 0., 0., 0., 0., 0.,
          0., 0., 0., 0., 0. ]
      - [ 1.13027617e+04, 2.28078906e+03, 0., 0., 0., 0., 0., 0.,
          1.10063809e+04, 4.08391113e+03, 0., 0., 4590., 0.,
          3.60624451e+02, 8.06380798e+02, 0., 0., 0., 0., 0., 0., 0., 0.,
          0., 0., 0., 0., 0., 0., 0., 0., 0., 0., 0., 0., 0., 0., 0., 0.,
          0., 0., 0., 0., 0., 0., 0., 0., 0., 0., 0., 0., 0., 0., 0., 0.,
          0., 0., 0., 0., 0., 0., 0., 0. ]
      - [ 6120., 3.30414111e+03, 0., 0., 5610., 0., 3.30414111e+03, 0.,
          6120., 2.88499561e+03, 0., 0., 5610., 0., 2.88499561e+03, 0.,
          0., 0., 0., 0., 0., 0., 0., 0., 0., 0., 0., 0., 0., 0., 0., 0.,
          0., 0., 0., 0., 0., 0., 0., 0., 0., 0., 0., 0., 0., 0., 0., 0.,
          0., 0., 0., 0., 0., 0., 0., 0., 0., 0., 0., 0., 0., 0., 0., 0. ]
      - [ 7.00914258e+03, 2.22226782e+03, 1.14039453e+03, 8.06380798e+02,
          2550., 2.28078906e+03, 1.08187329e+03, 0., 7650.,
          2.52437109e+03, 0., 8.06380798e+02, 5.39638086e+03, 0.,
          1.80312219e+03, 8.06380798e+02, 0., 0., 0., 0., 0., 0., 0., 0.,
          0., 0., 0., 0., 0., 0., 0., 0., 0., 0., 0., 0., 0., 0., 0., 0.,
          0., 0., 0., 0., 0., 0., 0., 0., 0., 0., 0., 0., 0., 0., 0., 0.,
          0., 0., 0., 0., 0., 0., 0., 0. ]
      - [ 9180., 2.58289233e+03, 0., 0., 4590., 0., 2.58289233e+03, 0.,
          9180., 2.58289233e+03, 0., 0., 4590., 0., 2.58289233e+03, 0.,
          0., 0., 0., 0., 0., 0., 0., 0., 0., 0., 0., 0., 0., 0., 0., 0.,
          0., 0., 0., 0., 0., 0., 0., 0., 0., 0., 0., 0., 0., 0., 0., 0.,
          0., 0., 0., 0., 0., 0., 0., 0., 0., 0., 0., 0., 0., 0., 0., 0. ]
   decision_functions:
      -
         sv_count: 1
         rho: -1.9032118413537438e+00
         alpha: [ 1. ]
         index: [ 0 ]
      -
         sv_count: 1
         rho: 8.7426491864689138e-01
         alpha: [ 1. ]
         index: [ 1 ]
      -
         sv_count: 1
         rho: 1.8179664914140905e+00
         alpha: [ 1. ]
         index: [ 2 ]
      -
         sv_count: 1
         rho: -2.0499072007460040e-01
         alpha: [ 1. ]
         index: [ 3 ]
      -
         sv_count: 1
         rho: 2.1591066597646646e+00
         alpha: [ 1. ]
         index: [ 4 ]
      -
         sv_count: 1
         rho: 1.5291515422118653e+00
         alpha: [ 1. ]
         index: [ 5 ]
      -
         sv_count: 1
         rho: -1.2698186011247063e+00
         alpha: [ 1. ]
         index: [ 6 ]
      -
         sv_count: 1
         rho: 2.7702981917043052e+00
         alpha: [ 1. ]
         index: [ 7 ]
      -
         sv_count: 1
         rho: 2.9985807172456580e+00
         alpha: [ 1. ]
         index: [ 8 ]
      -
         sv_count: 1
         rho: 7.9403329005303980e-01
         alpha: [ 1. ]
         index: [ 9 ]
      -
         sv_count: 1
         rho: 1.0945810757284331e+00
         alpha: [ 1. ]
         index: [ 10 ]
      -
         sv_count: 1
         rho: 1.5124559196376177e+00
         alpha: [ 1. ]
         index: [ 11 ]
      -
         sv_count: 1
         rho: 1.3130103773659469e+00
         alpha: [ 1. ]
         index: [ 12 ]
      -
         sv_count: 1
         rho: 1.2721409358936526e+00
         alpha: [ 1. ]
         index: [ 13 ]
      -
         sv_count: 1
         rho: 1.7065482389525310e+00
         alpha: [ 1. ]
         index: [ 14 ]
      -
         sv_count: 1
         rho: 1.2087435062436929e+00
         alpha: [ 1. ]
         index: [ 15 ]
      -
         sv_count: 1
         rho: 1.8477636228814975e+00
         alpha: [ 1. ]
         index: [ 16 ]
      -
         sv_count: 1
         rho: 2.9208558906934767e-01
         alpha: [ 1. ]
         index: [ 17 ]
      -
         sv_count: 1
         rho: -8.8185283056673414e-01
         alpha: [ 1. ]
         index: [ 18 ]
      -
         sv_count: 1
         rho: 2.4901081321957363e-01
         alpha: [ 1. ]
         index: [ 19 ]
      -
         sv_count: 1
         rho: -1.2149417908617278e-01
         alpha: [ 1. ]
         index: [ 20 ]
      -
         sv_count: 1
         rho: -8.4529570204530358e-01
         alpha: [ 1. ]
         index: [ 21 ]
      -
         sv_count: 1
         rho: -4.8319031473080365e-01
         alpha: [ 1. ]
         index: [ 22 ]
      -
         sv_count: 1
         rho: -1.9114333015186807e-01
         alpha: [ 1. ]
         index: [ 23 ]
      -
         sv_count: 1
         rho: -1.3656850327316357e+00
         alpha: [ 1. ]
         index: [ 24 ]
      -
         sv_count: 1
         rho: -1.6015171011811269e-02
         alpha: [ 1. ]
         index: [ 25 ]
      -
         sv_count: 1
         rho: -6.6373813779136381e-01
         alpha: [ 1. ]
         index: [ 26 ]
      -
         sv_count: 1
         rho: -1.1450093185237389e+00
         alpha: [ 1. ]
         index: [ 27 ]
      -
         sv_count: 1
         rho: -1.6877404236965887e+00
         alpha: [ 1. ]
         index: [ 28 ]
      -
         sv_count: 1
         rho: -6.1725157474437098e-01
         alpha: [ 1. ]
         index: [ 29 ]
      -
         sv_count: 1
         rho: 1.2829262606797291e+00
         alpha: [ 1. ]
         index: [ 30 ]
      -
         sv_count: 1
         rho: 1.0481418548170187e+00
         alpha: [ 1. ]
         index: [ 31 ]
      -
         sv_count: 1
         rho: -1.1236756697539176e+00
         alpha: [ 1. ]
         index: [ 32 ]
      -
         sv_count: 1
         rho: 9.8518195078199211e-01
         alpha: [ 1. ]
         index: [ 33 ]
      -
         sv_count: 1
         rho: 1.6450803043224984e+00
         alpha: [ 1. ]
         index: [ 34 ]
      -
         sv_count: 1
         rho: -8.4575845020218177e-01
         alpha: [ 1. ]
         index: [ 35 ]
      -
         sv_count: 1
         rho: -1.1847744787997354e+00
         alpha: [ 1. ]
         index: [ 36 ]
      -
         sv_count: 1
         rho: -2.0081696893387244e+00
         alpha: [ 1. ]
         index: [ 37 ]
      -
         sv_count: 1
         rho: -7.0777462914014877e-01
         alpha: [ 1. ]
         index: [ 38 ]
      -
         sv_count: 1
         rho: -1.0828402507391950e+00
         alpha: [ 1. ]
         index: [ 39 ]
      -
         sv_count: 1
         rho: -3.7495413316568393e-01
         alpha: [ 1. ]
         index: [ 40 ]
      -
         sv_count: 1
         rho: -1.1063690916772106e-01
         alpha: [ 1. ]
         index: [ 41 ]
      -
         sv_count: 1
         rho: 1.1216547167507769e+00
         alpha: [ 1. ]
         index: [ 42 ]
      -
         sv_count: 1
         rho: 2.4861783388072478e+00
         alpha: [ 1. ]
         index: [ 43 ]
      -
         sv_count: 1
         rho: 3.1243553583197992e-01
         alpha: [ 1. ]
         index: [ 44 ]
